{"lookupTable":{"dims":[27,2],"data":[-0.5948471205997165,-1.3319529448194904,0.03264066004396103,0.19301195699893578,0.8474146877259293,0.18052323074952906,0.8567519942155177,0.11514667416529853,0.6234553790665489,0.09671927111072527,0.028704056717455094,0.21660493777211065,0.49248534658839505,0.016933998029643946,0.5771880539859346,0.14629428060986308,0.29096802753433293,-0.05441132413034924,0.11986168945688144,0.11881437982979706,0.5206417649332286,-0.17515089932986025,0.5240554036794675,-0.009158777831461339,0.9276404197890131,0.12662470223671007,0.568882514614388,-0.046378509258819076,0.3826362505622777,0.08730449318538738,-0.0032376500176371815,0.25708788232509994,1.0351956492871464,0.09646220483734602,1.244828549917986,0.21490371107927683,0.7006340324163597,0.11197816511157749,0.24948129117081433,0.04104062965650409,0.4979286668415534,0.08177984697201407,0.03448959327735772,0.1709036984683724,1.044171021132427,0.01932836114251887,0.41485151558358474,0.059396648857339744,0.17497731106987868,0.0009719401071129436,0.20235063790972738,0.12570385274382465,0.9198615837136139,0.046396450537252644]},"weights":{"dims":[6,100],"data":[0.11598492142240342,1.111384641586375,1.6249164034248518,0.46840758047652453,-0.6937144809495758,0.1966708825917617,-0.4953431105059771,-2.151719184949182,2.2072977098746684,-1.8701634623262706,-1.0463055747735848,-0.639133946168764,-0.5962187538339835,-1.015893995895403,0.507232471445124,0.5024011804542893,-0.6284588132221453,0.016496442055175174,-0.4333804532579978,0.4005570486523171,-0.0242273331508071,-1.2126726617037304,-0.28073449310094506,0.6871057629453028,1.2170317991514774,-0.31987134192155375,-0.28208821152124347,1.3366779544404555,-1.2027906575842464,-0.8567792859935205,0.621454840738005,-0.9228280409808696,0.5893130072416578,-0.6428009170539737,1.039830606473292,0.25880252866804254,0.2633854617272544,-0.44256276064722017,-0.18718993380717874,-0.4916964176413169,-0.15841533557786425,-0.8927777206721642,0.12338605549629225,0.18304223271864706,0.24176367062711995,-0.3767531437996614,-0.8429512137105675,0.4801642945652154,1.021633826202902,0.006524819426745188,0.2679388301441098,1.8283051063431066,0.5241841295966521,0.12914268274451995,-0.809887826018888,0.782500229839206,-0.9486692913398037,0.26684722982828324,-2.215509411843374,0.920340075983658,-1.6126018192541594,-0.5426511982537704,-1.1095923232995235,0.9444130726484524,0.976173917983202,-0.7370182485294272,-0.5715200298230393,2.253671151519564,1.4576112311882872,-0.2803179082192857,-0.6395031113099614,-0.9937908969535872,0.3194169500023614,1.4924288240969574,-0.5380407954165493,-1.1461365062447366,1.119036676427066,1.0049098225119897,-0.2790244292143347,0.26413347464992887,-0.2325117644500275,0.950489821153426,-1.6938318937603762,2.2769256573933703,1.1587213223121724,0.4716980555448542,0.7145313010553206,0.6362380596387827,0.011729182862604168,-0.46561552224034847,-0.5603606950516211,-0.862021011181521,-1.4550927717720301,0.6735461012942883,-1.101804372759508,1.2309902012811111,1.0153223075852869,-0.20872697531963225,1.402700933564756,-1.017686379519543,0.5404302749425572,-0.6137033859322959,-0.8875574330942887,0.12202209105720846,1.4731947308888635,-0.7443786795517776,-0.38180779251976527,-0.8662078213288004,-0.19950470351018337,0.40052240098057645,0.3390477717233573,0.10073722397920506,-0.2803371630108297,0.34993300205968236,-1.21754605454587,-0.6330134505720697,-0.11016176794625586,0.5777814170878666,-0.23210951590179674,1.3199161287182117,-0.732573647598522,1.2500006360551807,-1.6710339362936124,0.5410323473384885,1.1041058677159183,0.08123028952252218,1.288440743130317,-0.06930359541298778,-0.7192418393564121,-1.376803903114339,0.42019589162644316,1.494335280817981,-0.6239300018334537,1.114935438355354,-0.24812110763647674,0.7547778325452675,0.40180213328389086,0.49975063359727573,-1.1143132897319294,0.699898500839387,1.3875270963944542,0.6079200260234595,-0.6329575220774885,0.4439682356674062,0.49869884992317465,0.07688775785002105,1.371120644285239,-0.6366218709592828,-0.34752739602217697,-0.41715151042228404,0.050729274777701346,3.1786677481242616,1.443283429415808,-0.38483549397890765,-0.6617250221750437,-1.1698127103403935,0.6052806121480934,-0.1435697640822304,-0.8483118687492198,0.38919276567301997,0.6266446241098789,-0.4472125117939163,-0.9472342493389018,-0.020754141805699802,-0.18594492243688043,-0.5299407440783028,1.0756446117814968,0.024030370563229705,0.14938617207879162,1.3717890540272732,-1.1433638152275931,1.0080609047066809,0.6671461636628501,-0.005018000528223599,0.5179926844267392,-0.09251800994623866,-1.8220298671605835,-1.7059343912125975,0.44178217513891865,0.40521510257528404,-0.6539413917239526,0.22076670787181812,-0.5620181724868778,1.9536859952697274,1.3164852294415683,-0.6254588876099543,-0.027456819471365704,-0.4536219982604952,-0.522778138970124,-1.4089926324999364,0.7247035872218663,0.6359988540962533,-0.7257759688630199,-0.5291163492392197,0.42761696999129195,-0.9672757153440861,1.4347867569775972,0.6357498029136269,-1.023261795034543,1.0824712516999424,-0.733375418357669,0.07492075887190572,-0.79539352983657,-1.3009725930894396,1.7566217553659977,-0.19774915668008142,1.5690678723550222,-0.29907139167471625,-0.35835234271818034,0.26120534410965357,-1.353360499071207,0.5637901887922048,-0.32853453715761743,-0.1950172500372785,-0.6776312778264045,0.06871564822517437,-1.0540552953272566,-1.2717533041649567,0.1293778886952525,-0.49951235825776363,-0.8160493277927645,-0.30825662592781616,1.6513699158757165,-0.28363082021806885,-1.4336214880033722,-0.2221138086133262,-0.3305708594255069,0.2610146026629035,-0.14838942748537434,-0.7760735305745818,-0.14793752507885488,0.586099782577979,-0.8884290988974827,1.3386634627912586,-0.3299281625693527,-0.6737507324174614,-0.2683260752532201,0.06486253950990374,-1.2287955341672825,-0.19962863086882662,0.3148021254626307,1.1905534794698571,-0.5888190671632663,0.6377224448014821,-0.3477416663614573,-0.04004555421401432,-0.38075004036908666,-0.9284065443569532,0.9956623854284591,0.6107699656900323,0.9406002540251381,-2.206652732788252,0.03746976425252705,-1.716616515917768,1.4812648393970111,-0.055777670447567214,-0.43902184463142707,0.09308566297919299,-0.8695666729884792,-1.0742415326324535,0.1909954246504084,1.3124047679847888,1.5086938273271602,0.6856474113536222,-0.41655081534171945,-0.8397513169100278,0.10639203838569934,-0.9827732945913024,-0.07184489139507694,-0.38392650509551907,0.03584600511976086,0.8359105820960308,0.6535486990314677,-0.27802544210491204,0.7798083627212342,0.17164451997776584,-0.5149802749188465,0.5130039329461779,-0.67654458090537,-1.0561920474800754,2.01625150469255,-0.36913300395442544,1.1584566521854047,1.0046465807689788,-1.0507380657033272,-0.5659611932145993,-0.6329764235616249,-1.5975616775428203,-1.2483806181544612,-0.48872655295741585,1.1220544251897377,-0.3646923834822298,-0.34410165411879323,0.19760336121464792,-1.5221416660438016,-0.3965490530136945,0.7707756442318527,-0.07993489834182814,1.4760779249532403,-2.662441414072252,0.8691384700132663,1.755955468736585,0.27031932937360564,-0.253776024885403,2.0391331475181302,0.04856238047371307,-1.3970895015811857,-0.04967235321599589,-0.5656711226216472,-0.7100410454841051,-0.18989359239962078,0.621080859856643,-0.029351030738399942,-0.9687550624436725,-1.62513569712495,0.5144093758255762,0.6740998427679102,1.2992155951665008,0.25333654374585024,1.2172827261789645,0.35876821620421745,-0.9679837131454561,-0.37105470509215377,0.6120299837829003,0.7791774066519255,2.3317156521520648,-0.5376755689799358,0.25230886138353986,0.48611577810605455,0.25134171186514026,0.8023181993795739,0.39041833337038667,-0.48503669666722987,-1.711696294485262,0.052701100222127366,0.2985782217567275,2.2745083670168995,0.2375540369885994,0.3041688648671224,1.5457640484657689,0.4055670547976138,0.8718704747885213,-0.24264934473431726,-1.2234718245136438,-1.7471251208520346,-1.3525978128077516,-0.49831807310368675,0.46637817131888953,-0.38651353117345116,-1.1335085693840306,-0.05906257365772777,0.9109501518433178,-0.42762532673685394,0.22253615072766927,-0.7148530232118608,-1.0188725076876155,-0.777362665200271,-0.12412469493040465,-0.44942536672595174,0.39840603645127765,-0.35730599474752006,-0.7200432447661429,-1.6394714689906456,0.08058076475157827,-0.21739819859628873,0.3798022892948943,0.9541020757593422,0.5335784101818393,1.3698840333747742,1.8608677009120962,1.3889724763281095,-0.49152535497146493,-0.9265271403514357,1.0966478782350766,0.3447561521051909,-3.123793876262481,0.8487240983787199,-0.0024380178050169973,0.4590921405490912,-0.4223281623482752,-1.013780957628019,1.2992839609252396,-0.6961048971946567,1.0751388998107223,-0.2923778286516008,-1.2341567365836261,-0.3599822873920217,0.2799762232883584,-0.1071820429566169,0.6875918039133612,-1.6639008968180076,1.0257710410163081,1.514647574946913,0.37046226923041164,-0.9613941589088693,0.2919906756606948,-0.7944058583482135,-0.37504035830617216,1.3083717535810921,-2.333448374903756,0.2343673610786417,0.7676144775901604,0.6094641242243792,2.828700544331506,1.11065460621494,1.6505996439217767,0.30552247557407924,0.41986037045568786,-1.0847175539105296,-0.611102400796385,-1.8308536709269165,1.0379893837726257,0.37225405669596645,0.6163967338146688,-0.03619864257259531,-1.0484002998157096,0.09612289066331992,-0.9938753213998913,1.2719043406861246,-1.3774124387580693,-1.590685005381166,0.01070749465697629,1.132923698845021,1.9139838487501155,0.3498945021650647,-1.319496227755516,0.9848844377140307,2.7600499907308294,-0.829511714437543,1.3617046275673441,0.4056431363336536,0.271781875458176,-1.8372918171770023,0.4940595020422108,-0.4479038754462702,0.7253719495826572,-0.8631238759859955,-0.09051358166759563,0.3390882644007205,0.9709231591845306,-1.1664653213478446,-1.7099193045120342,-0.32042686278968263,0.6458207713918453,-0.16544090584513588,0.65585293829339,0.9220963564327661,-1.4023347686243346,0.32005282028910104,0.3178003378267969,-0.48729671880522274,-0.805414111211666,-0.2525938374772408,-0.2764811631169322,-0.05037064096140177,0.2984387548148181,0.10472686462454171,-0.6974136365869293,-0.6105317173424184,0.6011962412440122,-0.03934823583761497,0.6286496428888408,1.0342055901230103,0.7837932462539101,0.472606171123055,-0.2626767322579561,-1.3060125998451964,-0.05332913320898611,-1.2746107802295963,-1.3123472540114423,0.1496284452370861,-0.5411706515401901,0.19653326205361152,0.48018728391016313,0.8532339405145085,0.16252994632980158,-1.0851521485768383,-0.5433230541085061,-0.802350430099149,1.0512545356690297,1.1265926811692408,1.6471350030029883,-1.555500319133997,1.9882851009955829,1.341564861264568,0.5597075280420087,-2.053648562297623,-0.05588220660222242,1.27207582138922,-1.1950152109584715,-0.43683481565088444,0.38403793310653855,0.8841431485604574,0.6049567158943588,0.6386864690404037,-0.19104872816576562,0.36354789609308996,1.568507117486215,0.8942043686630038,0.49944245542838,-1.4338910701108434,-1.3328271801812348,0.2549175143196867,-0.5458918305830978,0.12883789228270767,-0.6404690412741968,1.3195537636401828,0.9999883142601288,0.7018163667616487,1.3060769280556985,1.4661797844400037,-1.6973356733855647,0.024021364822874185,0.11209529509884339,2.328261281036421,0.007759422739625981,0.560717855377242,0.27149898531574573,-0.7123872792387933,-0.9103752910861374,1.4130132636515331,0.6273559901276043,0.95921628999402,-2.8121601796534668,0.5269202945145977,-1.443422804088009,1.1690374533233563,0.01210781369051063,0.01476363623724902,0.7081967968598359,0.823366029156429,0.4943269647817185,-0.9375522119569986,1.084067959308752,0.2479063683045252,0.343821448480751,-1.4408368868155381,0.9306517456606028,0.4386126243404376,-0.8436091139866396,-0.9447039246196145,0.6100956198262691,-2.285546640506541,1.4488864000354573,0.3175450207045741,0.1401044598356583,-0.14216353173802007,0.4093829316600162,-0.02838996121854923,0.448076376836757,-1.6115601201357608,-0.9451163462377306,-0.7079806071687773,-0.6535690604862621,-0.11839736534940419,1.3388255045735034,0.840035854891193,-0.7713579361871271,0.3285223371848088,-0.5415044783024793,0.759547609010142,-1.6628490994219716,0.8306981007826638,0.48606897089905743,-0.8473227409346805,-0.2621096784226113,-0.5406276208376228,0.15042199826200903,-0.996445426932673,0.20921889693561221,0.2260343936532922,-2.40044221301583,-1.0637634990994924,-0.48360460262909033,-0.5696857786938977,2.092967913285086,-0.43815703104568854,-0.89401753065115,-0.955858601432488,0.15270834302226924,-0.6800380199433181,1.122296144338166,1.1626540484037704,1.7963737863743157,0.7206117549607277,1.2045845459576299,-0.6284135011990285,0.3133153718287915,0.581649327831707,-0.5335157541094016,-2.4374263554586006,-0.239251496386671,0.21406578686168837,-0.06492365751531486,2.348486560896864,-1.5400819814511073,-1.101959919063053,-0.5020569706565328,0.9331798887369019,1.409769235713016]},"biases":{"dims":[100],"data":[0.9122875001196681,0.4366602606425503,0.5732590360076869,-0.047904904351090044,-0.3802147213909608,-1.3646266925419324,0.5720149461888535,0.1714056044143255,0.48905688712170264,-0.2549224088634262,-1.4935680904448811,-1.0834576700156833,-0.3140102077698695,0.873011238592544,0.9253430622107967,-0.805164446398521,0.32199289256788377,1.39619388706979,-0.7031816716319428,-0.31727831137734536,-0.7487881365562611,0.8939527282075198,-0.13161422262722294,0.6348655859409089,0.02497843248650852,-1.3353665420289624,-0.3236297845791771,0.005340443894295204,0.91086757436665,-2.0921686807216124,0.25408338018577414,0.22086250186318002,-0.11903484107499511,-0.969204287957825,0.26608333416138086,-0.3527986901522285,-1.1429896405959372,-0.5169094828711007,-0.7261591169960231,-1.4966193178547864,0.3232586330934419,0.29701578750071417,-0.12432544669223868,-1.0191854621395935,-0.6606532788939526,0.0871894263588055,0.835669751912249,-0.29340444394015097,0.4507314381204618,-0.8911408980409424,-1.0461205531701043,-0.1821389444247145,0.16457720570777923,-0.4411672966855012,1.1044819069030756,-0.6273043387341825,0.033109284844940336,-0.20218849244727724,0.3199136229282988,0.6118306919704365,-1.0857812483181464,1.010541653578708,1.5899530302169897,-1.1279381607814825,1.0474700903697,-1.128070841604939,0.4009452648744321,-1.1545449933525738,0.11381443154793332,-0.2722394595087104,0.9997483426590827,1.388028031380685,0.02403831391440795,0.4241456127818584,0.14494256034899086,1.0370330398146377,0.28661164220012614,-0.773598291990151,1.6185859774302036,1.588423865280285,0.37433920550164196,0.4657825561537837,0.30974396694515965,1.013404795446915,0.10743232751743856,0.8962574142409044,1.8930234435476994,-0.4857825019121772,0.9598772278835022,1.6194848295972872,-0.09801259742314579,1.2834775568698313,1.5039496036466216,-0.12174530456885545,1.6436568105754055,0.9483907150133716,0.23038426147915586,0.4342260758074165,0.569893536239362,-2.2695398115035714]},"secondWeights":{"dims":[100,27],"data":[1.7099767852588637,2.2030509012137283,0.26542351548327475,0.5318084032970313,-1.1992042104930354,1.216000777838922,0.2952177242275811,0.9284238550195612,0.23657749283309223,-1.8802810816328992,1.7775641663758033,0.09347776060560331,-0.6807569694609622,1.6062847095526525,0.6291873568998123,-0.8657300401506413,0.03468090472242555,-3.1954071585402537,0.026305241194791704,0.9098201667657324,-0.6473680668363669,-0.2965144058160811,-0.7981479409075869,0.5244973863924579,-0.7463286133889444,0.3412437548360239,-1.9816424498220528,-0.4642367069494803,0.2990215263053651,0.4473650345056055,1.4202467182357164,0.10493420043451311,-0.5617784748595291,-0.05918683065518843,2.124825908436853,0.6512697364155183,-0.9733747879004332,0.3403416261150711,-0.08045661872393765,0.8530200927642404,0.5812811093732181,1.7778562118034187,0.5921938834850058,0.32701571836015203,-0.33980496227227386,0.4245146452415866,0.0767915187838456,0.9803921753686962,-1.849577303532121,-0.8405603711902575,1.086321614815503,-1.3257159774241598,2.27219002056608,0.27570063802930733,2.217188213423798,-0.5039455662680122,-0.7957331504434626,-0.13318600360387753,0.04058945504754169,0.3102181442544358,-0.4396160024769346,-0.31173441627581056,-0.027318631007964767,-0.236018971531387,-2.01426717052884,0.015782001226499497,1.1786829945054353,0.22333361676984162,-0.17530018033042394,1.7369079108903307,1.561328712302364,-0.9891696083414034,0.18635355985112345,-0.02731629298024543,0.0006469539251924082,0.6048158762581,-1.2313765006019821,-1.0964114894117778,-0.35494532373152343,1.6648582463272996,0.6191930608205323,0.5742854186782771,0.21552957072383003,-0.9961496943426521,0.018126751370591238,-0.5238428835903787,0.10234192547571815,-0.8215005281515294,-3.4201516077531964,-1.330112092608194,1.0032400582659096,1.2211096634865448,0.08654750821349494,-0.10437089406834131,-1.2975892625777083,-0.13899338045861198,0.27416672792724067,0.08197170075614721,0.0663675177410636,-0.05509426181891869,-0.38611907209224583,-0.3377154634084708,1.5773984217238153,0.7652410890464981,1.143131697171881,0.13370787912405174,-0.4362725655301618,-0.20823154210358977,-0.4755559896284941,0.36289509721860064,-1.5475323259115576,0.21841120404955788,0.8199068678712635,-0.576590377607477,-0.5370273300114173,-0.0793743879755717,-2.28624074892125,0.49103450662511117,-0.5688298272179214,-2.0571507923234615,0.2993984941914132,-0.4960337319185842,-1.552672182956256,0.36314187658451486,0.8532455963069108,-0.3890347915936972,-0.9800346596850068,2.0169739144925605,0.09675161916244868,-0.06317130963123271,1.3192906393612962,-1.1079725399260656,-2.3377284500670257,0.23117153939279428,-0.6871056744579197,0.5410225535135025,0.7400155484919747,0.3406335618506071,-0.8710369710650214,-1.0578959396544132,1.7700252489971837,-1.2290607725964136,-0.06237326661780808,0.9429998968218379,-0.005802047607856362,-0.9323626410887029,-0.14755710170880462,0.6149494787273951,-0.323779632296572,1.4472362930436393,-0.1670761533820027,0.03563116106401265,-1.8420189595872847,0.9480174438588461,0.20770954822729562,-0.2839545006743637,-0.38031736887847944,0.3779310229712687,-0.00898707715395056,-1.6190981268966136,1.1956995362200353,-0.4640725520471846,1.5203895686145679,-0.7151070010157327,-0.48774272079244835,0.9853924171290592,0.9148581074656559,0.7280137565285432,-1.3641143199299437,-0.02960528482032557,-0.12077510687967523,-0.9137208517535224,0.17742524440041946,-0.4687271309183755,-0.4036709788350035,0.7510639691507978,1.1203740514393037,1.0612297377204505,-0.10812464721223823,-0.738836273228593,-0.7327286005583049,-0.5515014394581769,-0.07461810002667275,-0.33643369083313174,-0.182984319092859,0.35730328999564326,-1.1796918342382974,-0.06745211098363861,1.1532740074569177,-0.01321056310107107,-0.950851337312801,-0.121897626811279,0.4068687618912252,-0.23751752931938216,0.1413032217807432,-0.0505521991810834,0.021815268915536395,0.9703500502320881,-2.163478565049262,-0.3949350327992766,-0.09642049110269267,0.739742999000049,1.506100476278718,-0.30912364167555906,-0.7434017638582056,0.8162062048240122,-1.5007900015730355,-0.8309516147395133,-0.4631439649280453,-0.022013989190392488,-0.9170290823408711,-0.3965777203997477,-2.242308500311435,-0.055930763029914246,-1.2229217762422497,-1.2431254703942414,-0.40283832097588024,-0.14117919310642277,-1.705230995194348,0.09317541146253089,1.6016059271393186,-0.6979589796532152,0.6617281204325419,0.17050939325896683,1.3292356640342546,-0.932112950831534,0.06792557244904637,-0.12772790999655428,1.1345136490576728,-0.14147970080647737,-0.40387264098417947,1.2420301740621968,-0.3698139159608939,-0.9063927990294757,-0.217503146517294,0.8379786844331035,0.13758818788900737,-1.1405601262666571,0.5982717393395434,-0.7098416860084217,-0.8124333316071009,0.6557799503828594,-0.36562590968708586,-0.6669239810472919,0.41698313557462197,0.21627210450003315,-0.8131966466155683,-0.4138005985714235,1.5200910164963604,1.3715928807260322,1.4399086129161185,-0.2522950974692171,0.4995816026941794,-0.44177205397803637,-0.7303808697377541,1.1555124112441122,-0.5516262943725161,-0.4167422559014765,0.9858362231121087,0.13095381334824657,-0.7307564138883046,-0.2595614446134513,0.9012454752692928,1.2164288488763235,-1.3828269916236682,0.05675283698429615,-1.0253792339476013,2.007974682228539,1.0264474450374,0.3398168204482812,-1.4134350658828116,-1.2266948156182549,-0.707634283720455,0.3898849013314352,0.6788123695866406,-0.6580626887651301,-1.521956676718991,-0.3146958237725945,1.023886170548245,-0.40700293265232523,0.7536302795078609,1.0566586903504451,-0.36272114703087094,1.0939621618941913,1.0420426533064453,-0.03852199770893308,0.43839301254244023,0.9971871144645184,0.18932731091543062,-0.25627397250384515,0.9091969414825634,-0.7005125474242824,1.9072556507656617,0.5728593863228616,1.381916306381589,0.8489452015734339,-0.5237183757946978,-1.1193301106770568,0.07887345799863071,-1.654917741749606,0.04919681322705471,-1.7180125218614595,-0.0024661749524913846,0.2142012720162697,1.2712027205227998,-3.013396458084087,1.3883845241417858,-2.2807781356081405,-0.623253130874658,0.16209433169208512,0.07569839099338543,1.1477277945882471,0.49245939664117216,0.801183743855102,-0.8706654571039724,0.03208491326785502,0.38823980435375005,0.23056875269346774,-0.37643978816988355,-0.7885650935714708,-0.3257936950101868,0.18879988904272985,-0.13123914353505753,0.03628586328463675,-2.031371665586978,0.06254620992010582,0.6939524013197004,1.1517907949099235,0.0970618736242807,0.4591967172129733,-0.717045745754558,1.9823759147356335,-0.051492642372195266,-0.49993834888880595,-0.18442710426652786,1.3067969469176037,-1.4144549680074527,-0.6723946518202658,-0.09367816390790804,1.4614949988654353,-0.11966433117095066,0.7008109150103873,-2.205281305242374,-0.05128715291998426,-0.3463673836960049,0.6621650913953745,2.060616534271311,0.7059292716781562,-0.18741146219361723,1.2878680665693518,0.8868674029054268,-0.05642285090333639,-0.08575620252300274,-0.1190593412644604,-0.484158047000395,0.2189017041329392,0.44197363755496116,1.5328366615037177,-1.1049603414106284,0.5564930467089639,-1.982557474492883,2.4696365563226235,1.5067801578120859,0.977756880158671,2.1188820552920498,-1.0588421736535525,-0.4906882127271509,0.053609982079885675,-1.980392114453151,0.29830531762704515,0.4627288816014792,0.5372708711758933,-2.0636509077621303,-1.2687464630229135,-0.5498150632679077,-0.41743439258272635,-0.18220275257340932,-0.22449707436383073,-0.773420743937766,0.035089833041201786,-0.16747543434118747,2.218280555488445,0.18262799239046457,0.6418195295221392,-0.596376027434199,0.07952989099712851,0.5719686197979523,0.014939509633407804,-0.10411852622659884,-0.7262402559128476,2.7699906602371085,-0.021763112395076518,1.249065006558563,0.28239986899655034,-0.16553725411677567,0.3377049520629803,-0.5254089821706341,0.20415158255219676,-1.1597395051353103,-0.5541502147933259,0.9090622582191897,-0.6075317200914884,0.8030201219946566,2.0895164473640966,2.6858271025216944,-0.746847719954889,2.455250354003497,0.15567258273830165,-0.7501172332187847,2.3530373830563525,0.1738560080130219,1.90515268158544,-0.6108821938901885,-0.8053223611480378,0.27916166784176655,-1.4458764063251468,1.5489674629092998,0.42171282497518947,0.6505120955277897,-0.8426181301467307,0.9016015048287673,-1.141788327541559,-0.8534162154083629,-0.2206991056529085,0.07599328437606923,-0.4814978041040917,1.1711048710221013,1.3213937483683598,-0.03893241519924998,-0.4796067874450409,0.5739154554462256,-0.341677874593902,0.29731534164122453,-1.9102642569977086,1.3056927372133098,-0.06369473233027004,-0.23049195206443573,-0.904148085168735,2.5190284254069613,0.4939967952649721,2.0342171511256475,-0.13245795572709101,-0.6845653059864643,0.7721310846816868,-0.9803251170903033,0.25810625493614153,-0.20855814167877312,0.613837573896647,-0.719865993158849,-1.1055465562646443,1.0208240275476603,0.15516243467110255,1.0680203868801326,1.3952018461736477,-1.6284414871905846,-0.26212292279828875,0.7538006085676435,-0.3847853063649707,0.6556847821723676,0.30221738194380277,-0.38727996056195113,0.4337315983890354,-0.22820119217427695,-1.2122015217264657,-0.058052583443449136,0.3566736340376992,0.30935818672132653,-0.644056124547846,-1.1238948305941687,-1.2873936866910705,-0.6678353374349496,0.4711806081201936,0.9690200309259881,-1.0827407172346655,0.8181986790205764,-2.198332779634188,-0.7387333142699076,-0.6154562022962389,-1.1774894359466557,0.43435099908816915,0.2906613993645441,1.3859634634161835,2.031336061181498,1.3686769593735464,0.2746359999424708,-0.15401260611946851,-0.25237578337754424,1.0138527901858208,-0.71085751197182,-1.0157785193792463,1.2324997657411194,-1.2244974626209204,-0.7639562995674289,0.1900447831153216,1.014106770922957,-0.509268470934158,-0.6229365251951594,-0.5731733300470536,-0.1740041772617192,-0.911555220184841,-2.0407844639847723,1.4427840495983768,-0.5003565434902999,0.36166779364839313,-2.110244797493135,0.4059138025193683,0.7896929390572759,-0.08735696813296538,-0.8699329223347654,-0.17652920114308637,1.735410210171044,0.8761968291232327,0.5526428337968098,-0.9642192586964536,-1.007666193414552,0.026557746697551447,-1.5923163180679396,-0.44229763484203777,0.11917205118834685,-0.9483586205406075,1.938833342448002,-1.1281854469155417,-0.6216859808396471,-0.4890301383321404,1.0850483482318887,-0.5157314733544378,-0.09086256113781195,1.6362607020132094,0.43684150239015024,-0.523523671557686,1.5954665687702352,-1.0757235888550634,0.24503570447948506,-0.20113944134367331,0.4035449951758938,-1.29715856209552,-0.28567908407302905,-0.5178348497988189,-1.6824174129475362,-1.200125066880954,-0.11781024592037917,0.16422804274687317,1.1632972153670695,0.8896911375916431,0.8846564011769593,-0.8643671360348503,-0.2068216681764169,0.4868306504507888,-0.8862350184634498,-0.02224744952803745,1.7835827732881904,-1.767077897895202,-0.44723999430761024,-0.6704081045497495,-2.0617380610464013,-2.581373609817154,-1.2110361285550728,0.8737533942829541,-1.2403289508672835,0.5431253644514699,-1.3851032776458863,0.874925099629007,1.202201325864993,-0.015894228058962966,0.7663078353157471,-1.8104126907626958,-1.041707463685732,1.2038034315839663,-0.4814126080208668,-1.831822456522271,0.7926494556712477,-0.907187349952875,-0.5699659232695216,-0.5997583231186377,-0.9771262380909506,1.4948787983929541,-0.13507993852444938,-1.4670579040652623,1.9821711911019917,0.21501488204930527,0.07487063698462709,-0.9652863837325013,-1.023027942390338,1.000659097591248,-1.6078870767137314,-1.447634822204321,0.033121158863503725,-0.11074763283622792,-0.9603320469431144,0.32567169381201155,1.0217748691647803,-0.2320842122083903,-0.5462231938472343,1.0014619564757261,-0.8140977870369938,-0.2509824596730809,-0.024291057307854642,0.5904052086958561,0.15671495292326643,-0.17670844071483732,-0.43008282891926614,1.0947343448458382,0.12814665804405131,-0.0585772690443119,0.9494774293773441,-0.1360251948341765,0.13497880186497924,0.2937914396322893,-0.1820834073795417,-0.6083488355889324,0.6559987584023163,-0.856273963979662,-0.8097127219795693,1.2572859543091546,0.4573183562590827,0.2668024240539952,-0.15060522852457303,-0.9147999850515983,0.4962362216730341,-1.1667359606610512,-0.34805462683131516,-1.14383311143113,-0.7467549381110519,-0.15794050429782433,0.3330721092600184,0.8399816165807972,0.6153515143421094,-0.7033448334030077,1.5228428620567767,-0.05851363358746969,-1.0186245748188396,1.9225443064463323,-0.5398163050904339,-0.30219883619148624,-0.40235937564465496,-0.498543997152887,-0.2862567706843277,0.06483739472966268,0.15312806723122474,0.1417857116696031,-0.27688546877569964,0.9290925823174859,0.8746462867221374,1.5124089190016896,-2.2425570854775247,1.2783283412970643,0.22375798318414908,0.4574266695125706,0.7099666647586418,0.5692661864047582,2.849904834710943,1.3442952224816491,-0.194794526469891,0.8794566427550059,0.9112407725975283,-0.872511359510468,-0.32774930727615026,1.1804498667586967,-1.6290384387081471,1.2404882528979781,-0.9876545375177663,-0.2597829868646699,-0.3001599241104917,0.8161785253911448,-0.6108799182817648,-1.0209938697494054,-0.6956249055970065,0.12957064918145775,-0.8808318838173637,0.7168350528128168,0.6073514305041448,-1.1711983106727843,0.3095144164325013,-0.9859945413285609,2.3981827700627405,1.0881805250056138,-1.0848300441154994,-1.6464375180528759,0.39539338807723917,0.7368621524601305,2.0501446320180277,0.39498560041426833,-0.3415225386252524,0.5657780558338377,-0.839169287492645,1.3842200884786484,-1.3884246607435475,-1.0646707063247884,-0.31508272969811024,-0.6884441349813176,-0.9924763994189179,1.8453785749877165,0.46314021009748935,-1.9780558589697042,0.9247720866869567,1.4510921971862203,-0.40683771368834937,0.2842815102559095,-0.8712908166340896,-0.6830678086718478,0.10029772857207458,0.8624982459712472,0.3077753485137483,0.5401915398428898,-1.139690172642686,0.6451613740608183,1.1951246046985724,-0.5380815236551602,-0.9856591086155628,-2.1589547734688344,0.24408748408517966,1.2277093035873579,0.5796846562656578,0.149633004285851,1.027769068400169,0.1992417590538672,0.8278471369274164,-1.3769979392660912,-0.6739824652387436,0.8556090025483097,0.36066046294043924,-0.41577040336134274,1.0133903896516312,-0.39239971291877657,-1.4365523742368755,-0.07666635972097455,-0.4564874706489584,0.22088153826609352,0.1775764492496837,-0.8707480028084381,0.5885047182115041,-1.836590991140011,0.8601719635868287,0.9452782553782327,0.5836313692205609,0.3392297422178011,1.377594709273222,0.6429301975810643,0.33230554267319495,0.32499458170610607,0.6780840697180522,-0.1024846025563735,1.1095762966659484,-0.20765004461862463,0.177597644791563,-1.1520845153446784,0.9197315869302214,0.879193034909571,1.0829192138379378,-1.7511178603762685,0.09624510340340686,-0.2963159661581469,-0.3688244573727599,-1.7667572523213095,-1.1616941037046966,-0.06237169481162733,1.9031850882697057,-0.020957727172470797,-0.9351045995672149,0.9508095623253614,0.4310175222058911,0.6053091609885316,0.21019326777736033,-1.0400843399797706,0.27592620887600733,-1.1479182093313072,0.33924908438970347,-0.9214353471338318,1.5411337387576842,-0.22621313104492624,2.032145677649394,-0.9494567697841126,-0.5056643068467609,-0.8315444682476514,-0.48222226445092975,-0.6845641175597852,-1.2304716917677339,-0.4263422345035208,-2.1467270269199945,-0.1495227098552173,0.37406420457622297,1.1477673048765407,0.6825492430458164,0.22621187192681524,-0.12651321811589283,-1.687014130563275,0.4839793820661381,-1.2578077296916532,0.10284453679479422,-0.242635544485235,0.2223374592349728,0.13801711751162482,0.22416045482513078,-1.5597457569323168,0.5283853477625813,0.2681770901397453,-0.8547400491539564,-1.1408571668029508,1.3471266726397093,-0.7858919002431902,-1.0186416804757747,0.4572741252996933,-0.15185617500211382,-0.8688046682701623,-1.2255520281815875,-1.2604075031500592,0.3170133637285748,-1.2901895309298048,-0.43221188292645374,-0.8959966658238347,-1.046582867959304,0.38043133410069285,1.4326173616995244,-0.4359615482020332,-0.618281326129166,-0.4221547745219299,-1.587688438632485,0.2205334278393449,-0.5126506753671395,0.19834253196441864,0.2747236023306822,-0.9994469095608908,0.9076248823577846,0.9261763647357573,-1.149894051681042,-2.670342532976853,0.5136049042989705,0.6090009023858334,0.08265358184156252,-0.19548638631247942,1.2435024401837234,0.684414678524082,0.8838857041860307,0.9900735207856359,0.6705869988773271,0.1147747919553221,1.462103235460245,0.18848741432238977,-0.7108345414611149,1.2254209546483352,-0.5429734947306091,-0.7528063291058157,1.1414292519183304,-0.8878653652757813,0.4177621856137924,0.6114722597637361,1.3095970217433617,-0.3527720457336332,-1.537200578406141,0.17190251203280865,-1.7100471595235778,0.1504796070650711,-0.8501887214874583,1.3377161803573325,-0.14960284831889628,0.2748237018598474,0.2689207053598512,-0.3108801178070839,0.5024838465622767,2.039177548976846,-1.0254352789138566,-0.6323514019013508,1.1403788706872844,1.0872474503963772,-1.547822093733398,0.32447160382959084,-0.8626084235805517,-0.8710835005048995,-1.028301609295522,0.8008219101934829,-0.8619927393936537,1.7260815811284365,0.7406202676095663,-0.7485825880079701,0.11964615534107487,1.5127847835309105,-0.06556487317592684,-0.7425985709546497,-0.22856389955064935,0.6220248887946863,-0.059615114515967293,-0.2992943822820521,-1.021585327448888,0.4295501608309406,-0.5591034082085514,-0.6039238510818943,-0.24692052458351219,2.3831736082185464,1.7585339260113804,1.1119932704602826,-0.32607713694753687,-0.3961109534966251,0.5799382659863614,1.0610637752538872,0.7358302987299811,0.42960917402985843,0.23613778712190422,-0.33215023566495167,0.001586434658529826,-0.3129966081703151,-1.5451167443534781,0.24396557069618321,-0.10453487283728627,-0.08610802922365803,1.8113435696336633,0.5617037506207072,0.7344963171578797,-0.4673157550753689,0.9232720192832736,0.8740783898823147,0.14761588694296202,0.33786026350329434,1.4556852876113462,-0.17452045239225591,-1.3624696871847053,2.1450219674390936,0.32887275151026846,-0.9880788628653899,0.3700180548248568,-0.33114923931177764,-0.1786112134545472,-1.089717022981831,0.2886436123732923,0.4517766475731374,1.6673970983047701,-0.8009421120416408,0.3139975142647772,-0.6817040870069285,-0.29202525498346465,-1.035371458674143,-1.2615825771087137,0.893617764088898,-0.43574786161700446,-2.5093754799863084,0.9153103188772562,-0.7539094417498022,0.5014432082216272,0.4291040169446663,1.8220911753569518,-2.374364788624906,-1.6916653119465086,0.7260257508899596,1.0543060698082911,-1.026693700333393,0.44754725400738005,0.36545420077443946,-0.026694640171107138,0.7692784845211871,-1.3862554821222943,-1.3724532804279201,-0.015778165875074267,-0.24613056472939243,-0.3493318219983116,0.44714007324449523,-0.6189373353003558,-1.0117736509550925,0.4806425101165533,-0.7938669311747044,0.12529002212289111,1.5541089411910833,-0.14602787737679837,0.7626509382192782,1.7823864380483603,0.7268819202039963,0.21046648737622953,0.9357340743301441,1.2847383467091098,-0.3387452214454071,1.4377921937731573,-1.2352976371010733,0.6883027500149644,-0.06181410482506343,0.15445779195735027,-0.07799417941900838,0.31121954170379196,0.6053087563686461,0.7196911211204478,-0.38565425361756916,0.30688213677085413,-0.060810182810660834,-1.9034188975296447,0.20121653865921704,0.22619086593860982,0.1930949902074743,0.9053091882625719,0.45404553308617174,3.288654300915834,0.6209820656432065,0.7558078228528654,-0.6003487075226809,-1.2108111224455964,-0.967166013920997,0.8219493345046434,-1.50236790549611,0.5073686673365013,1.905201543926053,0.005438760653991233,-0.8461733412619681,-1.7261779518680727,0.13923600557008856,-0.6362352152072602,-1.595170310544408,0.2283751930246553,1.3099172718432521,-0.35527533065667416,0.3306681041637412,-0.3911246532687282,-0.3331641202185536,0.5690663259797071,0.016234112874184387,0.943568014356254,0.7891875206104566,-0.48752232157535735,1.1440364726212662,-0.6234906238128491,1.8084667394322944,-1.788807965655408,-0.2672637823332682,-0.8536820448729687,0.7838247713841209,0.40721994307963866,-0.5886628288116953,0.5315484959408233,-1.401085494695869,0.9276223457291168,0.4094971238826963,-0.4770758232730859,1.1070861086451984,-0.6582370529012982,-1.5894286566038338,1.4459315938457828,0.7077094667072249,0.4086112891030307,-1.0158844934640057,-1.9835310933704522,1.615623590207069,2.190879993777373,-1.9493880673274748,0.1052774964009262,-0.42029652513605564,0.7214948071613259,-0.7972572476651225,2.354483007394234,-0.09292782888463406,0.47666382293579435,-0.7917423581348629,-0.08239641881999019,-1.2684918352122612,-0.5223747749835735,-1.5588190715846897,-1.93378046797459,-1.1723256383144112,-1.5547755585157763,-0.07576968829399312,-0.45531183258854724,-1.6970559096344464,0.22335582262188275,0.1297682271827207,-3.3105617527749898,0.021260135809193764,0.46555722327581894,-0.005833068335670842,1.491805025222557,-1.3651417702105284,-1.0395787383655364,1.6391827807715054,-0.45361155827744115,-2.3714908163301485,1.1034806743460428,-0.34386055494178136,0.7263921544490345,1.4748886440219375,-0.047117256603637934,-0.04611007003866992,-0.02390560715144837,0.45363282591803994,-0.12176415177972977,0.6151023406119215,-1.222998451353562,1.096298014231758,0.18750009688077113,1.1400160088283602,0.050196577530859855,-1.2978338647158056,-0.2915424210374556,-0.0477395056506476,0.9014458068134876,0.16065708526621292,-0.011752116726538695,-0.7340142951721209,0.6857999610994053,-1.2042939021974277,0.394382181376197,-0.6060481542091097,-1.2975628669931152,-0.5190482090416263,0.4950010074048489,-0.5951223234927074,-0.16842719208850748,-1.1356422003396909,-0.2372432865461878,0.7699559790359795,-0.5704186759224248,0.8440300584079756,0.799452869013463,-0.6227293715665341,1.681009725968966,0.49290069569418776,0.2887516968219475,-0.5018883490771993,-0.11008247527391095,0.6922534077074631,-0.9173233750517568,0.7372586802419662,-0.25418227565809703,-0.36550365831609477,0.6240926778012773,-0.8393579110250513,1.6653619860836992,-0.1865675801321293,0.4465043735418029,1.1208099635223234,-0.6234550660554018,0.15552542600684907,0.9150978426473777,0.23346234707423175,1.2171021680108551,0.15280903555806838,1.4009208745049582,0.04658276983253065,0.18844796548032133,-0.13087877528370495,-0.4328246596466355,-0.5407070533544248,-0.46106849233508307,0.7292503323879892,1.502363688567814,-1.008299386253689,-0.038070094522130817,0.23913054824845786,1.8316971372594981,-0.5866645889414839,-0.6784245631892535,0.4981104608791175,-0.6300126055281999,-0.7833425921238656,-1.5630698992125036,0.608570058894788,-1.1856650611915531,-1.6235855422172278,-1.1571854027930475,-0.3065345041885737,-0.2894164119452766,1.4545757174581315,-0.22731103956623588,-0.6877810851924504,-0.07888192240467669,0.5886971794911695,-0.7968703995228456,0.637156083723653,1.294041139777243,0.5096860342344992,1.7081091331645832,-1.0728577012388902,0.05499782396826999,-1.4442932094545953,0.5220654489134711,0.5824995378338246,0.17192683653146548,-0.5509662251171878,0.40732769824429715,0.6441983328309037,0.26753759019461865,0.5768134417001421,0.002176103880759203,-0.1636404593192343,0.8464962654699738,-0.9863525619668334,-0.7864032649790772,0.9636880661423985,0.17183782341070505,1.318296369671889,0.11843562675821832,-0.7055189506883779,-0.9129172738670224,-0.9288647622866861,1.9924108358838204,0.3420163667259012,0.542436378092543,-1.8610521578395443,-0.25370415539209845,-1.5443258826906123,0.2816185071658396,0.38118999541634335,0.5539952512174533,0.17409524067565846,0.779327931583969,-0.5269730102581077,-0.04321661948414769,0.40184335010085187,-1.2338279334754934,-1.450636072020737,0.9846958890429847,-0.09462915370386017,0.36314931649282683,1.7053842259319711,-0.05869011482200741,-0.19689559315494953,0.07511429397260005,0.9992250770882604,-0.934625954446166,-0.10066849637681333,-1.0215027758496902,-0.6471249367072746,0.24700752759624894,0.13122380288546975,-1.6403104646991433,-1.5014097118062995,0.04220298814253798,1.1660740454402445,0.9899987569530388,-0.554423517786972,2.3636881621196655,-1.5314471737159785,1.578759616398182,-1.8242141571667827,-0.7950148845417985,0.563755618499956,0.14267674973248123,-0.6553480529060034,0.24559273455678973,2.5447734042841486,0.7895309941996208,-0.35035975991302176,-0.9928434338699442,0.15850139325379994,1.1000096131629955,-2.1065935466716077,-1.270390978349107,0.5511219862715081,0.04190908963180939,-0.013709852421712973,-0.08102566077427699,-1.0268317468494341,0.6833435782664508,-1.918827672959306,1.1432800728115602,1.9981346995840332,0.705219164435815,-1.039561778526118,-0.7168953519742648,-0.15682534549075017,-0.2288058069579305,1.0299136238693023,-0.5874247393592388,0.5385508918483125,0.20334327063145743,-0.16492962536047115,-0.8348992129394867,0.26514122846503746,0.24424472902184557,-0.3179582126697314,-0.6288060048675768,1.3397131790482255,-1.0007295025935112,0.04763265325472982,0.6775930235100911,-1.6998759285693057,-1.6289685476175089,1.3826816118265417,-0.8748872713470768,-2.067923699356297,-0.5183120661563414,0.7068189885171395,-0.7231306460892891,-1.384525719299034,-0.219276804865985,-1.7317288332846335,-0.7817779102757263,-0.3679830143739488,0.6588706442653035,-0.7528661919647254,-0.5273718033900734,0.024910397619482685,0.2322960776950219,0.7678736458183918,-1.9233694700752442,1.0874654000796178,-1.0171529827485752,-0.5155719223790421,0.25267854523696753,-0.20317180369658439,-0.35042089268092597,-1.8425386803986232,-1.0987759642204686,1.139161830484246,0.07498247457356899,0.06638519070947857,1.6973877697850563,0.1749681851095136,-0.010100511354488487,0.5585388375756521,-0.20816669789226327,-0.5212961436047786,-0.7093931720386311,1.1307441010109105,0.1405619113375785,-0.6221138935946531,-0.2385283950060143,0.8440936069322734,0.6725692562897886,2.945359699042427,1.0402458201788445,0.2800970360200525,0.9847080493601255,-0.2867120762704992,-0.3869770081111437,0.6936032826687434,0.8641297094653178,0.7747000119722958,1.2163431125591395,-1.4204305981480132,1.2306524900989408,-0.6678535138033859,1.2349299966357266,1.4306732422141337,-0.020076299962020608,0.11153070087582635,1.4770937394638455,0.521633297537383,0.8637734407762883,0.07651051505723552,0.41601930960110384,-0.35829553791972507,0.32925055391276903,0.7646914901323515,-0.29255864266796655,-0.28818644001946503,-0.21184002836785248,0.8009030081909803,0.2517903394940155,-0.12447066102948115,0.24341053384124,-0.20193884959346328,1.30672975104582,0.4725274128250556,-0.09570952364634445,-2.0756073056674853,1.2076422820437966,1.1691312527173967,0.08069821234706569,-0.630565838185927,0.31755306020087176,1.072370899351776,0.49246359598387873,-0.33753417418316023,-0.22581763252585876,-0.7975381742862847,-0.058496117259312974,1.2966840401153483,-0.5451254932172941,-0.1359329706049457,-0.2934330158381193,0.8796218162948662,-1.6570928181392413,0.4658360524918359,-1.6157679992711222,1.008555481165869,-1.2735964286669479,-1.2208691275283088,-0.34674557373982673,-0.1781614321474749,-1.9659442630479236,-0.7686562298830302,-0.4745961661665616,-2.0491449787708276,0.8584639306266881,-0.042380544633233264,-0.15625551235335147,-0.44665673613134954,0.5923754435186398,0.6084207279166665,-1.0123311442688931,-0.1855687980589959,-0.22786843640556811,0.8122658352988834,-0.7525533599935389,-0.42909493537023846,-0.7933180024585722,0.06438315790082338,-0.7380240405934824,0.2741171086580141,-0.08269704933487022,1.4687212078531715,1.5571956271981005,-0.8716044138572097,-0.3668004327480596,-0.08832997503121545,-0.4183153491091115,-1.1360041925888864,-2.5164955937016216,-0.35245918281276306,-0.09925811411322859,-0.6496507644696328,-2.11290130639006,-0.3558801257361273,1.621302875462797,-1.6723958086935322,0.5752918917877389,0.8666575544969846,-0.33840958570561575,1.2833768177030533,1.1430780396544669,0.8516464598013617,0.47928807774158216,0.7099877347182351,0.2712662766939532,0.3106574724676489,-0.24947153884065904,0.4693162119670089,1.926826837350891,-1.2834932597583562,-0.48032149441569494,-0.12469348382448954,-1.0362006435019362,-0.44612410901906463,0.32044379633561954,-2.0990554418082326,2.0810303152290266,-0.8900194703224664,-1.2783325801852978,-1.2971562577542752,0.42385916084192893,1.9184275313006522,-0.2955890053639125,0.8573948047246502,-0.7452470805008842,-1.7712511513676645,2.012990492027802,-0.3599807615624872,1.6322996115126938,1.772612175621133,0.883174374470487,0.7827321871687689,-0.24046667358732038,0.8864207878903414,0.30264581569427074,-0.6795693230971781,1.1792383708577014,-0.4752651033141061,0.15868177423411736,-1.157631692175103,-0.12034486416085245,1.375161646231824,0.11068143461219024,-0.5218506374944213,-0.05945437564552961,-0.3407347123176713,0.03569014811096603,-0.15768600516984624,-0.12201198379917952,-0.7022231407045246,-0.509204193231398,0.09082484703130272,1.5925974112837014,-1.7123526468993342,-0.238345056897405,-0.08774766475708766,-1.3326919471217011,1.0115926440968708,-1.1823222004265084,-0.27484331801810624,0.7962100110825697,-0.7016960332559042,0.9054074040847478,-0.1134048281621608,0.0828314113712143,-0.9404454975699433,0.8892863231498089,0.5693742003862512,1.6800711948676919,-0.405354682168309,0.3608734690033084,1.11308695050158,-0.3418738349091755,-1.4674591416821416,-0.30135484860572254,-0.12385996778562793,0.5470369947227853,-0.5206656111878835,-0.814853783040065,-1.1650946636963886,-0.21780685088370755,-1.1926447343654571,-0.6671636317003231,0.22467794250686093,-1.0833048528055118,0.06955570973518503,0.3643258444130287,-1.7736710821758168,-1.5922817909654006,0.43416755213821007,-0.9248187778106279,-2.260336151244213,-1.7972053095489902,-0.1246905393653867,1.7491765046194776,0.2561178012459801,0.46460773265455113,-0.7451933175074571,-0.10059499644296171,0.7059812045153125,-0.6676433751983791,0.3632498004413722,-0.00626419617528635,0.6699542796727405,-1.1323689592119208,-0.33366149269490153,-0.969777524206688,0.5105120659740819,0.4033214276792598,-0.20892128228538034,-0.35341649494839245,-2.4105795495553957,-0.5826943432250742,-0.25733489256231,1.6437673788042728,-0.5430604075738553,-1.2379413107638348,0.7534657019907137,-0.9897387445630172,0.4103052864102721,-0.587507483162059,-0.3096676727108258,-1.1688529110296335,-1.2338545043397555,0.7094237286839573,0.10323916765959541,-0.2736046754105193,-0.33246298066763114,-1.3062688335302903,-0.950818205009623,0.14674611881208133,-1.987960470969253,-0.8026874122094173,-0.6837053833619701,-1.207476705727546,0.5423292862127338,0.6013653773961313,0.19077705463474603,-1.2908714857070123,0.7153947254470837,0.3892136125604773,-0.9712399415704879,-0.8876564384617176,-0.196139866666277,0.8415740833070967,0.31947562389857065,-0.6757146452585321,0.5666922062097912,0.05204960893823177,0.5767569511713316,-0.5471728857383249,0.11260315163932781,0.08114537204883972,-0.5466638032418477,-1.3019577155844493,-0.624793781486275,-0.024938671698537192,-1.1474631456109514,0.9495824584634537,-1.7249747017801145,1.7663311580600125,-2.3333846928419746,-0.668216302023159,-0.061578795319864064,-0.23593280224242622,-1.6762997122430694,0.23913175684230462,1.6278083189428285,-0.38755461577698574,-2.182479077395852,0.2639611116492213,0.28064776421481163,0.3239202105700293,-0.647115658649595,-0.04837961887793989,-1.1258156380601196,0.47378347076346067,-1.0265204470437177,-1.1349539337945966,0.4446253707874275,-1.4573617973583965,-0.7229038271386077,1.5541814491297123,-0.7757113264502262,0.805756859351608,0.7446717925748975,0.2577524719308092,0.764905895037183,1.1176574047217807,-0.10458755163833662,0.5401405520260387,-0.7246265246635643,0.3217754057465435,0.5013223523905328,-0.05479791939609181,-1.1659818236179764,-0.6227992782431047,-0.39709238279860154,-0.06247066377881674,-0.7830726083883393,0.603330774490728,-0.8855837664132828,-0.2805877201512479,-0.06438984192118813,-0.2271913386206994,0.5211977232366158,0.44245049585749263,-0.18429892386818753,-1.0002105828850427,1.587952198548146,-0.29772508284635874,1.6445373992224719,0.9094501132891781,-0.1509307795485544,-0.09709266652343608,-1.0691350332102143,0.8847383296113052,-0.16532493661880476,1.46846828493756,0.30662496957966645,-0.3688864600543987,-0.4221959129078575,1.5585646408606715,1.468643696694898,0.12092269095283394,-0.06998875455167303,-0.09998182853185712,-1.7824350680017187,-1.51614094737778,-1.6776524210048738,0.0374138844891593,0.8215966058961957,-0.5903238556948672,-0.8314319685938193,-2.270328336011485,0.4531209206102828,1.126978063348556,-0.037770092080266236,-0.19414575786483534,-0.21160080315560784,0.5690421518085573,-0.0898636058629532,-0.1556281300447396,-0.03826408676124355,0.873449028935938,-1.5333552846297356,-0.12265618433291939,-0.8738805167974838,-0.5930475521075577,1.3545289777989655,-0.44004729523758374,0.3384678049679793,0.8069819624696265,-0.5827559159561164,-2.7171978071403133,1.5913745652088556,0.1801017430257049,0.3459011486451381,-0.9762495960945261,-0.7472678626696626,-0.5586920248568031,-0.9170760059429719,-0.3515909738231116,0.3827181717460347,0.33715293788254813,0.20100616448901365,0.8375766914643031,0.6312419812085268,-0.6343912863118848,-1.244247921179023,3.112901221046868,-0.6915678645801276,0.6695559567932133,0.687545705598547,-0.28697582937735105,-0.8014616454266419,0.9622246723052693,-1.339696607647008,0.7956601300331378,-0.9302817698747036,0.30246594353168027,-0.6195193101859501,-1.0602240261120488,-0.3285882862722034,0.25299757152509844,-0.6207901997339812,0.0697448307110475,-0.07296058190638316,-0.725749047519505,0.23834717687218304,-0.18303188598943174,-0.4356866900067952,0.3807106305526191,0.06825398695198652,-0.44994694465787743,1.1726018043770312,-1.7575802849278415,1.5960390903889834,-0.18093451242420064,0.1090199986193821,-0.13003240478188868,0.5578682396971631,1.1115649227062825,1.4322387083023271,-0.7378235148121223,-0.692026785172714,0.8127487903107722,-1.0504045210810715,-0.3482391350497373,0.43549564520983236,-1.4826308878348478,0.8487021497675071,0.6115673076107532,0.5793410818715062,0.5971011240899458,-0.6573975491394047,-2.008669838889669,1.5716693279078209,-2.7158948223497306,1.2249831645798885,-1.1773746740244024,1.0612724430128182,-1.7193254376167089,0.925942060644825,-0.27344727483712644,1.7036135483789339,0.44550090030277767,0.02141570014230784,-0.7672667062135304,-0.5129555566321267,0.5722611039208095,1.6641608370757623,0.2533074244436548,0.31105018647613053,0.6655680655258815,1.097784580547746,0.5960200958104442,0.3622611371515439,-0.9578605287321259,-0.12285012443285741,-0.7064709548207052,0.7473969710069057,-1.8763942654204186,0.6869774017483216,-1.7866935533213113,0.2539338061545198,1.4041599939244824,1.4308219081712437,-0.5152536342161078,-0.30448509176436706,-0.569359677694069,0.05954949026008719,-1.7818506740203741,-2.2964958946245657,-1.0436357517853008,1.0409667352357022,-0.27735743696690984,1.5788699394264858,0.38204240068918466,1.2028918766866936,-0.35321191336287056,-1.121414926413701,-0.12470581156676966,1.741188557006188,0.3028049793953262,1.194482316069584,1.3780968514943437,2.0004457235968847,-0.8250226852320264,0.9577927335330113,-0.12073165106633767,-1.4216270289014914,-0.16936090117434635,-0.3425156070847734,-0.025475052809758817,0.03426035831548029,-0.3160296455696878,-1.2864058616093876,1.2293451665835111,-0.19980881199817518,1.7469738208433,-0.6085645001065365,-0.9231097569502422,-0.7244705640410971,-1.096864733182903,-0.20232178638327472,0.09289136973827934,-0.8952581990277617,-0.10946045353533197,0.38392473164367674,-1.5264530713297968,-0.6956686766404315,0.30867124181253464,-0.9982446480246394,-0.4553614245275608,-0.3562335636721744,0.46941826115439844,-0.1482968112652788,0.7701419867575862,-0.6547618141717061,1.1380830303011453,0.9358054114962513,0.7014777984860842,1.8544659843040752,-0.5326905235728208,-0.01436370536034947,0.47758876621815716,0.0013152044142848613,0.37512677786553117,0.4159057513876251,0.44366144609078634,-0.41099609702107176,0.06817879329962895,0.16242453339530605,-0.5765275816918769,1.4254636423960263,0.9809091842774649,0.6133553445638942,0.5813287774727877,-0.10025704038118098,-0.47396960328719767,-0.4034701440180907,-0.5689858046158397,-0.9731123937202465,-0.1760492314229086,-0.6855720530242101,0.01666626072879082,1.2855386314109205,-2.8388549259185383,-2.025248234671196,0.2931166275990107,-0.7461317425915733,-1.2935687801491789,-0.00385853398916743,-0.2536202744994489,-1.479090275753041,-0.6487087187101391,-0.9466391013979365,0.4796126650471343,-0.9393229495422992,1.6031708921039942,-0.35413119618925853,-1.1763796595269098,0.0186587299366275,-0.2571169068694073,-0.38917897843004234,-0.06225793894415809,-1.3384716919882176,-1.3573493127179317,-0.2986677549058399,0.45582505181916644,-0.0261299140174563,0.46737543320216424,-1.630558483477274,-0.23889951634228532,0.6436576848729464,-0.25515564752234104,-1.0683458555728456,0.1166600101271809,0.6866204136013417,0.5213742512983081,-0.3109478751342438,0.8138686936339242,-0.7612826731217105,0.5372127977913703,-0.95306812207647,0.8339538972174785,-1.1014032564880503,-0.05420530480917229,-0.027853520800677815,-0.34907348092700924,0.8892876029367287,0.9616645311297112,0.72553806329597,-1.6526058827748364,-1.8810981676200496,-0.9977977081475542,-0.8788530171143009,-0.7179729447487905,-0.9909794850606446,-1.2453020933543513,-1.7226014580349713,-1.2606870358803866,0.8869002360232594,-0.30382045373119887,-0.30737609171539154,0.773205185210499,-0.5312472411123138,1.0031000657954094,1.036095389683927,-0.4649048628310677,1.2472993373994514,1.3090902526672348,0.4522868179331069,0.33200817019588985,-0.7869516832414886,-2.391040894616651,0.41581051484423065,-0.07729958327084313,-0.9408925989738188,-1.0762702093679481,-0.3573431151489652,-0.4587256727863525,-1.1823136158338974,-1.7127188006164638,-0.9620470731764669,0.3031898333169176,-0.7542364375843861,0.033971931032834524,-0.08417556330069668,-0.8483323205599501,0.8685252673773526,0.40676396062516296,-0.8368146318574369,0.00877824721592343,-0.15832785187418713,0.8238532040542659,0.09911997850249286,-0.22279975388714326,1.0922923695652886,0.771248151920538,0.5551299470459198,-0.11435243103419178,-1.1485468701949828,0.2139214012931784,1.6171951867524161,-0.33407330224439064,0.6945358337553801,1.5706560728599697,1.0340180210114485,-0.9781355590791357,0.7555734085600931,1.943420294229686,-0.3734950249659022,-0.04343405811590522,0.47423957575321846,-0.3697884628021394,-0.39408601562187645,0.37816362357009387,-0.9317407748023754,-0.5427484522808216,0.9544682263483762,1.4609563868854532,0.18399471660196737,0.16554772540148197,-0.363870484679521,0.7766604901178126,0.08128568047871743,-0.4762541323202088,-1.4525273283206848,0.778874468353695,0.1674554592757213,0.25179067264371907,-0.40053189413789897,-0.14296670865536276,0.9878842644473136,-0.17960321910648852,1.7715977788061366,-0.9030171276815825,-0.5890734961654456,-1.2145017005173133,-1.1660057782839368,-0.80830346424733,-0.43507490232644397,-0.1976383518242635,-0.6981412175645937,-1.2044874468868567,-1.3429180268831795,0.4862506665260332,0.36950395031111677,-0.5411624887413322,1.8286729955218461,-0.519022123808996,1.6841877883901093,0.906231525775044,-0.05525474579336136,1.0514637322405265,0.33544019908271777,1.0776799163004922,1.3781323547231645,0.9261793867499274,-0.8492709288110827,0.38063975846363146,0.6660301258880171,-0.146204995829426,0.1936917080337073,-1.200840258658833,-0.049104333804314115,-0.08891962772749466,1.1129051374615075,-0.175974475061799,1.2951991051889953,-0.10405312538820682,-0.7920385095664444,-0.6976537255404336,-1.1273843021158836,0.21996683581960483,1.6762873311972395,-1.6951167466050663,-1.1511111091312514,-0.5240611108847136,-0.29277238233852726,0.29770639179439323,-0.004836148209775212,0.30321875598243997,-0.646567630000226,0.7772546805556747,0.08876576342266247,-0.4843368737534339,-0.28421505043675754,1.2275404308733564,1.1092611699527466,0.0360585066325269,-0.3827359773937219,0.48465385723245613,1.0146891271437137,-0.18479207175127743,-0.1541541459240959,-1.5293782471222535,-0.37177683291142943,-0.3271871091721265,-0.6423658207380544,1.7570630166735561,0.19024485791076962,-0.238658556351888,0.6687772114940763,-0.48836971671394225,-0.2169802174539404,0.5833195781218493,-0.7161850738346891,1.2388781490582323,1.4600673785610943,-0.0022586528943836313,-0.7945587023508546,2.0344537703086614,0.15634007911352457,0.666400253938028,-0.7651028016089122,-1.401101233731247,-0.7885971394109365,-0.9353460339400091,0.40404835907035597,1.0951523391260558,-0.27931627762472755,1.051722679851676,1.0436212922902774,-0.29335680853957696,-0.2462840074977673,1.0769036911575607,0.5721865957403259,0.7707161879738356,-0.5937633039839042,-0.6569697199022735,-0.6118001784337309,-0.07992716400771101,-0.5043331614689206,-0.9796336977647879,1.048794367285019,-0.11490148047310395,0.7105162358161293,0.5656895321778297,1.1101588314035788,-0.15471012844809773,-0.29118446937582215,0.8704229284289948,0.17222168248543399,-1.5171285479759562,0.7100151075570238,-0.6629314362084223,-1.7831948021196085,0.16833767756336793,0.5739174472836798,1.0965580953531435,-0.7001014429826131,-1.9227513243316396,1.8635447324200227,-0.9442484012705117,0.5248064472897787,3.197916475911246,-0.22087072350912818,-0.11689515385367709,0.7034665913237532,-0.7931773007618019,2.095524344141389,-1.3143861621788453,-0.7150871294007981,1.7481634982474312,-0.7806294479233306,1.7659273458500904,-0.4571195199004384,1.3795597535339699,1.1095360556149645,-0.6067593780317209,-0.3665949805569399,-0.7246435791349378,0.9459676422658071,-0.4959733476339918,-1.128521171813146,0.02804414162446085,0.5044162622226217,1.500397397265092,-0.3638457110467091,-1.8781540533217933,0.04659668030414108,-0.13736318488790425,-0.5132384860510107,0.42676253231150557,-0.31975059956911756,-0.908501919701833,1.1247979390212577,0.7904767297443952,1.2244725767624753,-0.83266711528816,1.786018228078268,-0.7661894001360626,1.2659276901233454,-0.4112857392937186,-1.4089909699132412,-1.4500046036490626,0.6619207203554617,0.40317107161391924,0.30703334104170826,-0.08996700710589577,0.0879467633109945,0.6212385363542894,2.8029581869525524,-1.5274976420982285,1.4298335382081533,0.8188957528308971,1.517010674792814,0.8179991051756639,-1.8625035058104216,0.985752523490335,-0.3171659852742231,1.0649186633492924,0.7966788166338852,0.5328883754058018,-0.597166587692503,0.6280873339710865,-0.9705637444213501,-0.2549270098102015,0.4997451714431879,0.7702019832655395,1.0004595598024617,-0.9914622204688276,-2.219584677266668,0.019149670253390403,-0.21082340359749832,-0.5093364373732143,-0.3915036036006,1.5618263700360477,-1.5320391564020956,-0.04816460058312681,-0.4537980670794943,-0.813618419713589,0.4689464343663763,0.8813682429237493,0.19600134484005274,0.5755101851793244,1.3746232298159586,-0.3304297829762848,-1.0480335371006073,-1.3503014249082228,0.5893783946330784,-0.8978465897003184,0.049111714442900106,1.2326359841341203,1.643964774394403,-0.8546897889445032,-0.1608459749298168,-0.22392801234008905,1.0062634623467617,-1.8365493920903342,-0.10673451617659882,-0.5414543142651299,0.09373353364510534,0.3875726826882673,0.43903824220274706,-0.6448326319546439,-0.3958899730806252,0.16554964417400847,0.17760015199299162,0.2016098152303591,-0.8785591547236834,0.21726543608169677,-0.3180814760149286,0.3594549223391437,-0.8878136774414516,-0.006263916636493577,0.79586471722664,-0.10114831827423518,-1.0053271810920992,-0.9573791053266737,0.39986968568756004,-0.7679226324480565,-1.198850234113263,-0.09518125794373558,0.08267344136771028,0.25096828657214376,2.826716185514831,1.1020811633217604,-0.9895512410051062,-1.4224057501340162,-0.18147106806993152,-0.687547004835759,0.6227324026117421,0.0474721881557199,-0.5209102864316324,0.5417519131878022,-0.3077356124300691,-0.38902224930452983,0.1311719298245032,-1.0073171637360603,-0.4504770554910133,0.241724131036464,-0.8436524043166362,0.3142907513955,0.16744711126433895,-1.120444481534545,0.7406924906613424,1.373119873198004,1.3224680141610978,-0.141555221914335,1.1122771947434476,-0.877022347487801,-0.241041251203353,1.124129870586414,1.2668550513573242,0.4122030962641259,0.7335606557664963,1.2008151666130844,1.8372094745973344,-0.6330577603350922,1.1525257963712783,0.14454812838791967,0.6551749681842735,-0.7520781986511973,0.4268167368456884,-0.23209881423144535,-0.793589931768486,-0.22212173354657352,1.331274522259475,0.21309712322461302,-0.9812745168830097,-0.09304925987846185,-0.8377748411044319,-0.23748739945998926,-0.6523687507964232,-0.9239951619344519,0.586315961035331,0.22943923741996447,-1.9244571831443222,1.3634972802797842,0.1928054798487103,0.2839873017283693,0.2849285335623614,-0.5691265624927382,-1.267458092155477,0.4097450069120794,-0.8268156164265803,1.872295175195041,-1.188637598937986,-0.6107281173548582,-0.15407866457863498,-0.03165374256771236,-1.2763071082132336,-0.6228447707096472,0.34355879167315556,-0.02751616401643226,-0.4664331408821077,0.018448743750121465,0.39385236517808364,1.5263478239435793,1.13107609296505,0.8895350866241495,0.8754469292021451,-0.5433050060318534,-0.6340966295130851,1.6165156907106697,0.001257161067780991,-0.7406106452499376,-0.24721175681601965,-0.03104480529488768,-0.22527524554553782,-1.0448230692022689,0.08544892191652158,0.8388065481617911,-0.8643971901107323,-0.0939281637149524,0.6478092692997639,-0.4294083688132363,-0.7338439327936237,1.3346299839020506,1.2181929050297078,-1.6117090940022585,0.8579995954018402,1.5912895789130503,1.1072535961579504,0.389660900188828,-1.0733914961649167,-0.3354808325130664,1.4869575561079356,-1.1277601942264368,0.733603540273685,0.053198293495263387,0.8797724293833695,0.2558687941174255,1.4702547492228535,-0.9744978039754261,1.3950983415222633,-0.21381435943971938,0.015883319014804827,-0.6348718939516892,1.2113042503805564,-0.1541140873472635,0.3934705984489333,-1.1081874478816562,0.7326267728132458,-1.9299277862045336,0.2632895015221874,-0.884470403988975,0.05601976633920333,0.41997069672207643,1.397353259275111,1.4264922258723034,-0.8424680328435364,0.08653938064641985,1.4277475425371844,0.38766177617529785,1.1074196377935732,1.1585359275215459,-0.8676166251653995,0.17371085350981755,-0.9884131567955045,-0.3774656824618234,0.9686248145958557,-1.5043673616261661,-0.043204430823510255,-0.6225283593415813,0.09088296034957687,-0.020404043771115772,-0.45159232148177686,-1.1679506451081836,1.3956927648027238,1.4471981975622508,0.5841239204391642,-1.2832061668906505,0.2306358737475089,-0.22803745175890833,0.8945231778756418,1.0554582901445486,0.3304116042285641,1.070976645152628,-0.4235760701483066,-0.8653102857240202,1.188002271143954,1.0959124841179986,-0.02494855898445957,1.152229879128212,0.12896690496538968,-0.28449461815370464,1.422823181365735,-0.11898828758514249,-0.5447243176891968,-0.7654137846425907,1.6641159431220802,0.5740765072252219,0.28418758973647434,1.3978489316125295,1.2312911914229605,0.26561097495626357,0.49995891815042726,0.7040890700544457,0.3722736345389306,0.13317902485571195,1.0297725124690305,0.4641339393031089,-1.0588288840460307,-0.757445809141284,-1.2945908355889966,1.1890401554097003,-0.5024645824290523,-0.07292881150388218,-0.2728826409166015,0.7959544393923005,0.6348047127601301,-0.6437859633634359,1.6954736914594102,-0.01711674576267902,0.9037570342337616,1.3027361787831666,-0.5170160798764326,0.450334229406263,-1.3085516060857736,2.858981558910802,0.607856823487135,-0.655217846924679,1.4997694470032785,-0.07727761633414114,-0.11841921331771224,0.3871092109450344,1.632452213540207,-0.9312174225849216,0.8011826092369739,0.2167568776223196,1.2113385632014178,1.0354092512786193,-0.2854632173019618,0.45867800972242767,-0.0009571184183028239,-1.3673717245153718,2.0391745752833246,-0.707523840349523,0.9262407393232771,0.2508542235952097,-0.8466970029349291,0.06695953853174987,0.6672765319956462,-1.2327593742617535,1.207783653625107,1.0302078343359715,0.7878644018970753,0.49168104309391925,-0.42649414396185703,0.7036048918559039,-0.14435278411087268,-0.4471778377041468,-0.6395400297304549,-1.2714514913089277,-0.8766090974550962,-0.5314919868412948,-0.4629741357749873,0.14414992458760922,0.705467653262471,-0.38445194132961963,1.1357324440249181,-0.8779804230357334,-0.9093395822402577,-1.6599939132283201,0.42266985176477634,0.6700160076327734,0.5894859106952339,-0.1947354146861749,-0.7210702203641063,-0.5047437386111869,-0.0005551828884566015,0.3568848138140949,-1.3600701726010689,1.6772842108372734,0.015557834791304886,-0.28594074868571256,-1.772099775741018,1.5912644389702026,0.304386718877308,2.514365280240772,0.6508923393028628,-1.605472349814756,0.20894635610357548,-0.2274710550354362,0.33325120890825133,-0.7356404263586575,0.694808700282366,0.7487244024500787,-1.0880463039897301,-0.3645686707683969,-0.8829466449319854,-0.5350833360957971,-1.1784905478791718,0.12125014131579687,-1.858475456844158,-1.3549634002661408,0.9819625997807586,1.4937485758117506,-0.3166137615620371,-0.8401112224433048,0.31763413063969353,1.2593547676120507,0.18004881467244271,0.08194747017732362,-0.05539592302828836,-0.2904319691835941,0.6366800604665264,0.03519049641496947,-0.7799514662911442,0.21251249113424947,0.86051796415122,-1.8644795769987923,0.98982461058308,-0.6775408561826557,-0.2673432074124532,1.8155904839072592,1.8585040429571447,0.6273313938715982,-0.03616797914486208,1.9782201854646126,-0.7097866269548917,-1.1412331814693684,-0.8069548152923113,-2.5399418769749897,-0.5804814738413964,-0.38254270022646036,-0.18998338391014327,-1.2417575804178023,1.1062976534839521,0.5906217623329334,1.7841004483071372,0.4247670064026938,-0.3187688192427024,0.8406144114905272,0.8782369844614571,0.9236689955928674,0.09405078476622111,1.203459102942456,-0.6950572878898487,0.41361253462297104,-1.223284379328098,0.4610425829817087,-2.198230500947958,-2.1884744583635753,-1.024874056409287,1.2596771696669482,0.8013911247096734,-1.3612241211144058,0.3110180523395898,0.42186127987525274,0.4321752700415744,-1.3848428403906332,0.7491503885854326,1.7252705675405182,-0.020885362117021942,1.188647535984274,-0.370451501888195,-0.23705709843819206,-1.589255363618842,-0.16991965293889338,-0.4093861675198255,-0.48096346550713326,0.2635148018909816,-1.1532753010229093,-0.19052382111933008,0.8277894564960266,-0.47408926843194316,1.116139212963235,0.5980063518796689,-0.7529877470030428,0.6225597599377374,-0.12023355358710916,0.37089961236856,2.5838309779662256,0.12201973460048131,-0.504197349997247,1.106640092214836,-0.01555780535389601,1.3519222061145855,0.9070405906653991,0.22006399183668368,0.4851199672561396,1.6273088159967632,-0.4055574475085244,-0.6614835131440855,0.8099262203065607,-0.7481745460980249,1.4730900799359685,-2.43118694832597,-0.6316718731017564,1.6135857119769956,-0.035279775867986175,0.8486555521681511,0.05380098955220205,-1.8117369299985804,0.030012610505671618,1.7066417395600437,0.06073430706309984,1.768293129166487,-0.6460610495431639,1.9153317387378614,-2.4956120969191242,0.28448557072628816,-1.2373849446082694,1.0928165225090904,2.253167893235265,-1.2182947615224113,-1.7349090080629044,1.7947342464784548,1.21188081547648,2.0603582984722464,1.3214632557477883,0.2366343904510671,1.7824851286413694,-0.8799015140957673,0.28774338601903776,0.4126121672288044,0.24319750651859734,1.04299909590063,1.7637949769987673,-0.8801365808178057,1.0570165388865456,-0.8226014932329022,-0.29620159146924535,-0.2579661976498235,0.5195344335241753,-1.1782001772921953,-0.5529315158274934,-0.018251823417701644,-0.3863972486555955,1.0314275034575426,-2.2453225866600484,-0.3397439195575137,1.1143241641217214,-0.7028384197407702,0.9918866897295077,-0.7841985225431358,-1.4833658563402379,1.1415030211501598,-0.07188043560848173,1.036859442140086,0.6588932535551288,-0.12982838947034359,-0.5117664510945459,0.442677532326614,-0.6484601921239137,-1.3253667541553236,0.7304199268866207,-1.3087212067256802,0.3127429400489033,-1.5764380796471116,-0.5504176203211177,-1.096767290327636,0.9654436623877577,-0.6321484955408769,1.5922189695899607,-0.07796032172778271,-0.47534217081393854,0.7952158605895732,-0.0644786278415891,-1.2848390669786527,-0.7210042734314935,-1.008310568415203,0.28415409227050453,1.0917580761949526,0.2968097771677934,1.0572749365576155,1.026367593740709,-0.37169098948278295,0.00925531237896535,-0.21188463595891913,-0.023085003793220565,-1.090765000707765,1.7602469070829319,-0.5231203735262653,-0.02890144095573421,-0.1178168462241956,-0.5431121871339264,-0.28199609747457854,-1.1015235533539405,0.7627218011582058,0.9413379050502864,1.255354334332659,1.4840988397647723,0.303326888464812,-1.249388546474644,-1.2728256774202833,0.04563262211521237,0.2220665154287645,0.19329345356300184,-0.736628795400379,0.44493954772190264,0.31229855647563837,0.6501545129218496,-0.5022638238120661,-0.1049766668477685,0.5233360427268697,-0.5954130781535796,-0.03284872791831749,1.165717257557474,1.5366235866025106,-0.6106127745854364,-0.057747209105543575,-0.8190460791906714,0.358267987273935,-0.5311144396372149,0.31079334923750535,0.011742919644183664,1.0521294710431925,0.1548347221863123,-0.7124684937306737,0.8428245070046158,0.5019608755427197]},"secondBiases":{"dims":[27],"data":[-0.3451789036264594,0.8312083322052907,-0.41192669923207426,-2.014727073621776,-0.498309232639237,-2.750796063754038,-1.6818296291568116,0.4593475940884015,-1.4757804587947616,0.0869344492426689,-0.5870653457304439,0.38309693594288513,0.6123050083725847,-1.1683806017731002,0.1105087810028882,1.541915566532998,1.6753658384591865,0.9353196513596429,-0.004605667498308857,0.3390098829075976,0.5961277462086778,-0.582312969894537,-0.4936859860486735,1.4887243361028948,0.3277435901418214,-0.8856384916701295,-0.2368199999041953]}}